<?xml version="1.0"?>
<opencv_storage>
<opencv_ml_svm>
  <format>3</format>
  <svmType>C_SVC</svmType>
  <kernel>
    <type>LINEAR</type></kernel>
  <C>1.</C>
  <term_criteria><epsilon>1.1920928955078125e-007</epsilon></term_criteria>
  <var_count>1764</var_count>
  <class_count>2</class_count>
  <class_labels type_id="opencv-matrix">
    <rows>2</rows>
    <cols>1</cols>
    <dt>i</dt>
    <data>
      -1 1</data></class_labels>
  <sv_total>1</sv_total>
  <support_vectors>
    <_>
      4.14170623e-002 -4.91049811e-002 -1.16578847e-001 3.24140862e-002
      2.59712726e-001 3.09204042e-001 1.69159696e-001 1.62402287e-001
      1.94180965e-001 -1.06768578e-001 -1.19634159e-001 -4.38830703e-002
      -6.02189116e-002 -4.72655408e-002 -9.95192528e-002
      -1.78165659e-001 -1.30610794e-001 -1.81638807e-001 8.09803829e-002
      -4.72717285e-002 -1.49947390e-001 -1.21163316e-001 6.91921338e-002
      1.26304962e-002 1.49186244e-002 -1.12490654e-001 3.99348661e-002
      -1.22681640e-001 -9.09352824e-002 -5.28978966e-002
      -4.14038181e-001 -3.17733467e-001 -1.19923666e-001
      -6.04042411e-002 -2.02050760e-001 -2.66427666e-001 1.65034324e-001
      1.41083449e-001 7.77109638e-002 8.21841285e-002 1.66832544e-002
      -7.46991858e-002 3.56995277e-002 1.17477454e-001 9.18455198e-002
      -8.16895589e-002 1.93506733e-001 2.62886956e-002 -6.81964159e-002
      -2.82663815e-002 -5.80487140e-002 -1.59251522e-002 5.34895808e-002
      -2.33235478e-001 8.19556788e-002 5.34181409e-002 2.98194084e-002
      -3.13991010e-001 -2.34194070e-001 -7.19549730e-002 1.42050292e-002
      -7.07915872e-002 -4.26484235e-002 -3.38543296e-001
      -2.32963488e-001 -1.69526026e-001 -1.62684411e-001
      -3.50219727e-001 -7.30379522e-002 -7.89010525e-003
      -1.18160900e-002 -2.49719173e-001 1.29215151e-001 2.14549661e-001
      2.43841514e-001 1.72925100e-001 -2.90435962e-002 1.11610770e-001
      3.96683216e-002 1.15967907e-001 -7.66673982e-002 2.21768003e-002
      2.82559127e-001 4.62413505e-002 -5.56098372e-002 -1.23817623e-001
      -1.58773974e-001 -1.43688247e-001 -4.00540568e-002
      -1.77372128e-001 -2.10224807e-001 -8.64388347e-002
      -3.29296701e-002 1.28901780e-001 -4.98271585e-002 1.45914759e-002
      2.85410192e-002 -4.97665070e-003 -2.28208825e-001 -2.01371431e-001
      -2.17664242e-001 -2.85410583e-001 -3.25080246e-001
      -3.48588556e-001 -2.77430534e-001 -3.05596411e-001
      -2.66530931e-001 -2.99044311e-001 4.12665382e-002 3.59115094e-001
      1.15065932e-001 7.78805092e-002 1.41642079e-001 1.01138704e-001
      -1.41480535e-001 -4.27119583e-002 -1.44677892e-001
      -1.28301799e-001 1.84239328e-001 -5.64432964e-002 -1.10680312e-001
      -1.74624279e-001 -1.86839268e-001 -3.45062539e-002
      -1.18247874e-001 -3.06136340e-001 1.26268581e-001 5.89639470e-002
      -1.87439770e-001 -6.07375428e-002 3.30448076e-002 -1.49559140e-001
      -2.35290051e-001 -2.84118932e-002 -7.28890523e-002
      -1.24541536e-001 -1.53296515e-001 -2.56442755e-001
      -1.54915661e-001 -5.67197837e-002 -5.01058884e-002
      -1.51546314e-001 -4.94255833e-002 -3.26761961e-001
      -9.17092487e-002 1.09980628e-001 -1.12471832e-002 -5.48069626e-002
      -2.97745138e-001 -2.58893549e-001 -4.92023025e-003 4.83982079e-002
      -1.80125847e-001 -2.12530151e-001 -4.67165895e-002
      -1.44136138e-002 -7.49131888e-002 -5.83558753e-002
      -1.85541004e-001 -9.15704891e-002 -9.73836258e-002
      -2.83811390e-001 -4.83824648e-002 -4.73602526e-002 3.37047279e-002
      1.62619003e-003 -3.32938395e-002 -7.90031701e-002 6.74807951e-002
      5.40913939e-002 -1.19552433e-001 -7.08605275e-002 -1.13349827e-002
      -2.89215613e-002 -1.83033988e-001 -8.41697231e-002
      -1.12066478e-001 -9.17176306e-002 3.60407196e-002 3.05908024e-002
      -3.12488467e-001 -2.48979479e-001 -6.09141355e-003 1.21575519e-002
      -7.02047199e-002 -5.68534434e-002 8.39812160e-002 -2.87584942e-002
      -3.19266170e-001 -1.23274401e-001 -3.28902006e-002
      -8.47075880e-003 7.34268054e-002 5.57691008e-002 1.46235302e-001
      1.40543699e-001 1.80632100e-001 -4.66011697e-003 -3.09606314e-001
      -1.28836498e-001 -1.59759417e-001 -3.08221877e-001
      -2.15475366e-001 -9.78639498e-002 -1.81304980e-002 5.87691106e-002
      -5.00119617e-003 -7.93713704e-002 3.99969965e-002 -2.21649371e-002
      -2.09602877e-001 -7.33028501e-002 3.56649272e-002 1.13700420e-001
      1.80952668e-001 2.45130494e-001 -6.18266277e-002 1.09621324e-001
      2.32539251e-001 -1.91856697e-001 -2.98694205e-002 -6.10469319e-002
      -8.61655027e-002 1.06472343e-001 3.86358015e-002 1.53475598e-001
      2.85441518e-001 3.74777615e-001 -2.92081473e-004 -3.14776778e-001
      9.63363871e-002 1.79067980e-002 1.20534837e-001 2.28604525e-001
      -1.29084229e-001 -7.52452835e-002 -1.39951734e-002
      -3.94744694e-001 -2.51019478e-001 -9.42049325e-002
      -7.89764151e-002 1.41469892e-002 6.08036369e-002 1.89969335e-002
      6.36260659e-002 2.54891813e-001 -1.33040398e-002 -3.50203663e-001
      3.37483697e-002 -1.80530120e-002 -1.05465753e-002 1.82635412e-001
      8.85609537e-002 1.38457134e-001 1.61566585e-002 2.65720747e-002
      1.20718710e-001 3.34921367e-002 7.82587081e-002 -3.64453392e-003
      4.07723375e-002 -5.60407937e-002 -1.18299007e-001 -1.66864693e-002
      -2.58921772e-001 5.86762615e-002 8.78257677e-002 4.94907275e-002
      -1.24568097e-001 -3.41434538e-001 -1.67269975e-001 8.38969648e-002
      -1.44269201e-003 -5.14343716e-002 -1.83838159e-001
      -6.59488887e-002 1.65324118e-002 -3.27138305e-002 -3.73687446e-002
      -2.00141102e-001 -1.58151686e-001 -1.16126508e-001
      -2.14066908e-001 -1.96724653e-001 -1.78090930e-001
      -1.27052873e-001 -1.65726051e-001 -3.18472326e-001 6.11706041e-002
      6.74675778e-002 7.88986236e-002 -3.38773951e-002 -6.24747984e-002
      6.11602999e-002 9.43310186e-002 4.54289205e-002 -5.16596772e-002
      -1.73614472e-001 9.10875946e-002 1.67800859e-001 1.78356007e-001
      -1.50685171e-002 -5.78236580e-002 -1.07517958e-001 1.64045602e-001
      -1.21017873e-001 -1.41599789e-001 -9.45977941e-002 1.83819175e-001
      1.57251544e-002 4.49515395e-002 -7.03777373e-002 3.50856334e-002
      5.30270264e-002 -1.92393824e-001 -2.43739218e-001 -2.17671454e-001
      -8.33421275e-002 -6.17429353e-002 -2.49720305e-001
      -2.06207320e-001 -2.76989430e-001 -5.47128581e-002
      -2.07914487e-001 9.38614085e-002 6.22818060e-002 2.58670412e-002
      1.41383052e-001 -1.23813162e-002 3.72375851e-003 -1.16150631e-002
      2.78051496e-001 2.61898413e-002 -4.04151566e-002 -4.88799810e-002
      -1.79045767e-001 -9.33373421e-002 -1.63934529e-001
      -1.99169561e-001 -9.31254774e-002 -4.16299999e-002
      -2.21511558e-001 4.24854234e-002 9.09381956e-002 -1.54376344e-003
      -1.07736282e-001 -1.41378239e-001 -2.62078475e-002
      -2.31709272e-001 -4.71223295e-002 8.21143463e-002 -1.17780916e-001
      -8.95247757e-002 -6.01814464e-002 -3.67181808e-001
      -2.22953618e-001 -7.22981021e-002 -1.13696679e-001
      -3.23423706e-002 -3.15388501e-001 3.13080512e-002 -6.45462945e-002
      -2.85467446e-001 -3.93598229e-002 -5.90836257e-002
      -1.38854191e-001 -2.92924196e-001 4.64519039e-002 -8.07559937e-002
      -1.97503731e-001 -1.24602625e-002 -9.14454088e-002
      -2.41483431e-002 7.34656900e-002 -4.06331718e-002 -1.27593830e-001
      8.63146484e-002 -1.45100236e-001 -8.53033923e-003 -9.99452844e-002
      -8.06801766e-002 -1.91114187e-001 1.99468397e-002 -1.01108797e-001
      -2.05508471e-001 -8.95128585e-003 -2.46221963e-002
      -8.92064199e-002 -1.75858974e-001 -1.59383476e-001
      -3.21015269e-002 -1.32935539e-001 -6.62582219e-002
      -5.92761077e-002 1.45493194e-001 1.91029869e-002 -2.33182862e-001
      1.51273729e-002 3.30865420e-002 -1.25175595e-001 6.99260011e-002
      -1.25370203e-002 -8.10194388e-002 2.53442954e-002 -2.43111700e-001
      -1.31766871e-001 1.11890454e-002 -1.28123313e-001 -1.91253513e-001
      7.93175846e-002 -8.87899697e-002 -1.49837911e-001 -6.08849190e-002
      -1.08370043e-001 -1.84873044e-001 -1.22599028e-001
      -9.17502642e-002 -1.82782203e-001 -1.92390099e-001
      -3.52686294e-003 1.64833236e-002 6.52562827e-002 -1.42391607e-001
      -8.90571326e-002 -1.25777081e-001 -3.33979696e-001
      -2.18032598e-001 2.25834288e-002 -7.32879192e-002 2.62166485e-002
      -4.46348079e-002 7.29507906e-003 -3.62544842e-002 -1.98151916e-002
      -5.20969070e-002 -1.31742924e-001 -1.10614980e-002
      -1.28820136e-001 -1.02506846e-001 2.21159421e-002 -3.12447008e-002
      -1.44172292e-002 -3.79634537e-002 7.68442154e-002 9.88425985e-002
      -1.42548785e-001 -8.93017054e-002 1.09354302e-001 4.58107218e-002
      -4.68165390e-002 -1.88999429e-001 -2.54984666e-002 5.66378199e-002
      -4.16687019e-002 -3.92292328e-002 -1.87564239e-001
      -9.79056358e-002 2.33850572e-002 2.76090996e-003 -5.88130243e-002
      -7.93495774e-002 1.21819332e-001 8.09356645e-002 7.95296859e-003
      -2.22353697e-001 4.83627809e-004 1.39395827e-002 -1.51945829e-001
      -1.31639615e-001 -1.04023501e-001 7.02469349e-002 -4.75511774e-002
      -1.11488774e-001 -1.86344869e-002 -9.94370133e-002
      -3.53672765e-002 -3.63523094e-003 4.04473543e-002 3.02224010e-002
      3.45497847e-001 9.97942686e-002 -1.14063537e-002 -2.82427818e-002
      -9.20051038e-002 -5.60396202e-002 6.24477826e-002 -1.41678751e-001
      -9.86571908e-002 4.48838845e-002 -5.93484044e-002 -5.96125349e-002
      -8.31436515e-002 2.97170002e-002 1.33000046e-001 -1.25373885e-001
      5.13207577e-002 -3.64407077e-002 1.77317724e-001 -2.04875574e-001
      -1.73273645e-002 -1.78914890e-001 -5.02769500e-002 7.43966224e-003
      3.85914594e-002 1.15095928e-001 2.36791030e-001 2.18899444e-001
      1.65280160e-002 7.80499429e-002 8.17642435e-002 4.95510921e-002
      -5.99451549e-002 1.95718914e-001 -4.98256870e-002 6.46693856e-002
      7.98711181e-002 -1.99342698e-001 -2.12056711e-001 -1.14767648e-001
      -3.23668756e-002 -1.24330238e-001 -1.88698079e-002
      -6.18741401e-002 9.64748710e-002 2.28395820e-001 1.62567757e-002
      1.29650757e-001 1.13277644e-001 -1.38662076e-002 -2.20780909e-001
      2.51090918e-002 -3.00646365e-001 -4.79455590e-002 1.16369212e-002
      -3.58421087e-001 -8.89223516e-002 -6.91977236e-003 4.19031549e-003
      -2.99340367e-001 -2.29106992e-001 7.80946091e-002 1.96468428e-001
      2.27998868e-001 7.29156435e-002 -6.46741390e-002 4.49156910e-002
      7.35166818e-002 1.37818396e-001 -2.05181371e-002 -1.03810512e-001
      -1.99671518e-002 -1.16122007e-001 -2.26141602e-001
      -2.04304472e-001 -1.94287039e-002 5.32645807e-002 7.14159980e-002
      -2.50020847e-002 5.26708774e-002 1.36511847e-001 1.18785031e-001
      -3.96885388e-002 -2.34875251e-002 4.70623672e-002 1.22829698e-001
      -8.94317776e-002 -1.27212582e-002 -2.20241502e-001
      -1.40591264e-001 -1.32849127e-001 -2.03715086e-001
      -2.21385986e-001 -4.24738191e-002 -1.04769237e-001
      -5.72837777e-002 -1.11155316e-001 4.78432998e-002 -1.24745108e-002
      -1.39765039e-001 -1.06052980e-001 -7.50821223e-003
      -3.53326905e-003 -1.33314610e-001 -2.00957224e-001
      -2.95684231e-003 4.14817743e-002 -4.18332629e-002 -8.88907462e-002
      -1.07193127e-001 2.42307056e-002 3.56588513e-002 2.91700326e-002
      -1.26984194e-001 -1.23119019e-001 -7.80120045e-002
      -1.40885890e-001 -1.57999814e-001 -2.26468667e-001
      -8.16598162e-003 -2.12970719e-001 -4.30461131e-002
      -2.19797790e-002 -2.45340820e-002 -1.47545442e-001
      -9.98252779e-002 -2.48872653e-001 -2.40473539e-001 4.97721657e-002
      -4.46155258e-002 5.21050021e-002 3.15488577e-002 -1.85631335e-001
      -1.29959911e-001 -4.16167676e-002 7.45770335e-002 1.36200981e-002
      8.84048641e-002 -9.54314694e-002 4.06963676e-002 -2.13089943e-001
      -1.18987784e-001 -1.16194561e-001 -1.03273928e-001 1.74351595e-002
      7.16774464e-002 8.71120989e-002 -1.13300487e-001 2.50675566e-002
      -1.08784579e-001 -5.25975861e-002 -9.40786004e-002 2.49665938e-002
      4.29859646e-002 -4.69660610e-002 -2.14989926e-003 -3.89115065e-002
      1.42927676e-001 -5.73282968e-003 -1.23064905e-001 -6.88550770e-002
      5.03177494e-002 2.86983605e-002 -9.80740488e-002 7.59252012e-002
      -1.67320207e-001 -1.19564071e-001 -2.13579983e-001
      -1.86761841e-001 -5.99975064e-002 -1.47504687e-001
      -7.42196441e-002 -4.42727283e-002 -5.83126061e-002
      -1.15083136e-001 -3.40430364e-002 -3.12978216e-002
      -3.28053311e-002 -8.26069489e-002 -6.01544715e-002
      -5.48428930e-002 2.15785438e-003 -6.53467178e-002 -2.24896204e-002
      3.04744951e-003 7.49492645e-002 4.88710105e-002 1.12362780e-001
      1.26497418e-001 8.65510479e-002 -2.62695014e-001 -1.86589032e-001
      -2.17518657e-001 -1.16707087e-001 -2.24932522e-001 6.49627447e-002
      3.12549435e-002 -1.80821624e-002 -5.19804750e-003 -1.35182723e-001
      -8.21262822e-002 -1.13034636e-001 2.16398183e-002 -1.17136993e-001
      5.87987304e-002 -1.20508626e-001 -1.69334598e-002 1.01570755e-001
      6.34779409e-002 -2.81205088e-001 -1.63113147e-001 -7.30497018e-002
      1.59615904e-001 5.34961596e-002 -9.96575058e-002 -2.95691565e-002
      1.40764207e-001 -9.00663286e-002 2.13021077e-002 -1.98629975e-001
      -2.17433702e-002 1.21189915e-001 -8.36488307e-002 -1.43592596e-001
      2.37115640e-002 -7.26058846e-003 -9.35364440e-002 -1.87182292e-001
      -2.17886180e-001 -1.22463249e-001 -1.98598623e-001 1.25367446e-002
      -3.49029243e-001 7.30052171e-003 -4.41121385e-002 -1.66834876e-001
      -3.00813168e-002 -3.10468655e-002 -3.60509194e-002 1.29432026e-002
      -2.13313431e-001 -1.80892050e-001 -1.47514641e-001
      -3.56643870e-002 -2.69464582e-001 1.96665786e-002 -1.29138291e-001
      8.46294016e-002 1.22374050e-001 -1.43456191e-001 1.70335382e-001
      -1.61202699e-002 -8.54273327e-003 -2.16853335e-001 9.61084291e-002
      -2.03125954e-001 7.80718699e-002 2.55736262e-001 8.08901712e-002
      -2.64698237e-001 -2.27909282e-001 -1.19994499e-001
      -2.50343710e-001 -4.55569103e-003 -1.30317524e-001 4.95413616e-002
      2.80134520e-003 -2.77748197e-001 1.25470385e-001 2.38296986e-002
      2.53491420e-002 -7.54725486e-002 1.60321042e-001 -6.28440604e-002
      -4.31307964e-002 9.56187248e-002 -6.87095243e-003 1.11230120e-001
      1.57857209e-001 1.51082352e-001 6.23074584e-002 1.23820685e-001
      1.37717247e-001 2.68022045e-002 1.60378590e-001 1.50013089e-001
      -2.15766594e-001 -7.43142366e-002 -5.19237202e-003
      -8.38364288e-002 -5.11254482e-002 -3.53750982e-003 4.59823534e-002
      -2.10543752e-001 -2.21608594e-001 1.32254869e-001 -4.39489074e-002
      -1.33889407e-001 -2.33563241e-002 3.94824967e-002 7.98082799e-002
      1.47707820e-001 1.87851012e-001 7.29106218e-002 -1.55833453e-001
      -2.23920420e-001 -1.15805730e-001 -2.03652352e-001
      -2.81935513e-001 -4.62587886e-002 -3.17696840e-001
      -1.60880610e-001 -1.06990822e-001 1.39794990e-001 5.06539792e-002
      -4.09709290e-002 -4.95967921e-003 -1.06226057e-001 1.76171392e-001
      1.48290649e-001 1.18625592e-002 1.47948012e-001 -4.33552116e-002
      -1.00934803e-001 -7.25642070e-002 -1.22583508e-001
      -1.84241593e-001 -1.16791204e-001 -1.26131564e-001
      -3.11614592e-002 -5.35134450e-002 1.02456957e-001 -2.62134653e-002
      -1.02583272e-002 7.16916844e-003 -1.86396077e-001 -4.40751314e-002
      -7.22692907e-002 4.39025685e-002 2.51268864e-001 2.67641228e-002
      -1.33727819e-001 -6.56164736e-002 -1.04587011e-001
      -2.14895103e-002 -1.53476730e-001 -1.92033917e-001
      -3.33183594e-002 -5.24929278e-002 -2.48495832e-001
      -1.24114357e-001 -6.61786497e-002 -1.40601024e-001
      -6.41613007e-002 -3.32326889e-001 -2.00767055e-001
      -1.31921871e-002 -1.13479994e-001 -2.16665879e-001
      -3.07649970e-002 6.48557469e-002 -5.50195612e-002 -1.35322288e-001
      -2.16621742e-001 -9.61237550e-002 1.61964297e-002 -9.97206643e-002
      -1.33117765e-001 -9.26934257e-002 2.59845648e-002 -1.15474343e-001
      -8.83205608e-003 -1.58443138e-001 -4.95885648e-002
      -2.05532443e-002 1.39758484e-002 -2.43390739e-001 -7.48943761e-002
      1.08955160e-001 -6.42391965e-002 -8.73812884e-002 -1.56206027e-001
      -5.15604205e-002 -7.37845991e-003 -7.16382936e-002
      -1.96295738e-001 -3.86732556e-002 6.56267554e-002 4.84521724e-002
      -1.00444958e-001 -7.52648413e-002 1.09537177e-001 9.95510072e-002
      -4.44640145e-002 -1.17712706e-001 -1.18115716e-001
      -1.00028716e-001 -1.20306276e-001 6.59388602e-002 1.40061174e-002
      -1.02709115e-001 -7.91430995e-002 -1.49200484e-001
      -2.04645932e-001 -5.01300767e-003 6.43425211e-002 -1.13462485e-001
      -4.83901985e-002 -4.59500328e-002 7.22780079e-002 2.04147473e-002
      -6.85901642e-002 -1.62888780e-001 -5.48844449e-002
      -2.04155222e-001 -2.39983276e-001 -1.70729328e-002 3.12440307e-003
      6.10680878e-002 -3.56111750e-002 -6.91855401e-002 7.68868849e-002
      1.04675435e-001 -1.54004304e-003 -5.25018014e-002 -3.80197950e-002
      6.19914681e-002 -6.04459308e-002 -1.59080639e-001 -1.67395715e-002
      4.17890102e-002 7.21667632e-002 -8.90468899e-003 -1.82613298e-001
      4.83604930e-002 -2.05468312e-002 8.75727013e-002 -5.19421287e-002
      5.44441342e-002 -7.27321655e-002 -3.21039781e-002 -1.05757482e-001
      -2.12385625e-001 -1.17010690e-001 -7.84447193e-002 1.46031663e-001
      8.20013285e-002 -5.13580516e-002 -1.94404721e-002 1.66313183e-002
      3.70614678e-002 -8.58195722e-002 -3.75356041e-002 -1.07247976e-003
      5.21275774e-002 5.16694523e-002 5.92664024e-003 -8.48072618e-002
      -9.64710955e-003 -1.11595824e-001 -7.81210512e-002
      -3.06080561e-002 -4.17531244e-002 1.05043270e-001 -2.39107311e-002
      -9.36216675e-003 -8.40286762e-002 -6.50512353e-002
      -7.04231188e-002 6.78886250e-002 1.24816298e-001 -1.16529733e-001
      5.33543006e-002 -3.03378478e-002 -1.15550950e-001 -1.53262824e-001
      -7.49763623e-002 3.16427350e-002 -7.13982657e-002 -8.05697404e-003
      -6.39488846e-002 3.03782243e-003 -2.75690611e-002 -5.78707010e-002
      -1.22803420e-001 -1.06055818e-001 2.28949301e-002 -2.81235334e-002
      2.58754134e-001 6.55691838e-004 3.32241841e-002 -1.59398481e-001
      -1.48942560e-001 -8.05972740e-002 -1.68538988e-001
      -1.87241510e-001 9.52774473e-003 -2.79412586e-002 -1.37206271e-001
      6.58460855e-002 -9.54408944e-002 -1.82222709e-001 1.62181199e-001
      4.50715385e-002 -1.89607330e-002 1.42069444e-001 -1.86642148e-002
      -1.06323749e-001 -4.29365635e-002 5.10809058e-003 9.60544646e-002
      -9.21010375e-002 2.32534064e-003 -3.53859141e-002 -1.43348172e-001
      1.40503377e-001 -2.22162172e-001 -1.10837691e-001 -2.53511071e-002
      -9.85392854e-002 1.70210347e-001 1.84786156e-001 4.14356329e-002
      1.57373115e-001 -4.85801697e-002 -2.04925731e-001 9.23437998e-002
      1.83791310e-001 2.73987442e-001 2.02767819e-001 4.10185903e-002
      -1.20703772e-001 -1.31708592e-001 1.16865635e-001 5.22788428e-002
      1.19079836e-001 1.23023875e-002 3.42712589e-002 -1.61312014e-001
      -1.13311693e-001 -9.38727483e-002 -1.75360218e-001
      -2.45879874e-001 -2.01744780e-001 -2.46949300e-001
      -1.66193888e-001 -1.42792523e-001 -2.81758383e-002
      -9.27232131e-002 -8.40043649e-003 -1.10202089e-001 6.10739440e-002
      5.86627237e-002 -1.75759010e-002 1.73631664e-002 -8.71770456e-002
      -2.30564326e-001 -1.63994431e-001 -1.45873219e-001
      -1.78378969e-001 -6.57543391e-002 -1.12102322e-001
      -1.51804507e-001 -1.18377335e-001 -3.69483411e-001
      -1.56789750e-001 1.61493756e-002 1.05839400e-002 -1.94039643e-002
      -8.55383575e-002 -1.85568139e-001 -1.94787487e-001 9.24138911e-003
      7.75236040e-002 -2.17845604e-001 -1.26722842e-001 -3.89098637e-002
      7.40563124e-002 -5.06818388e-003 -9.94782746e-002 -2.04694182e-001
      -2.47657046e-001 -1.32831752e-001 4.70549194e-003 6.99424446e-002
      1.03418469e-001 4.44091745e-002 8.41329806e-003 -3.48450877e-002
      -4.97143716e-002 1.54564947e-001 2.16440558e-002 -3.34807858e-002
      2.09712088e-002 -6.28065243e-002 1.24465942e-001 7.54503487e-003
      3.97004224e-002 -5.42382225e-002 -1.17880188e-001 4.96841557e-002
      -1.14678442e-001 -9.32240933e-002 8.91441293e-003 -3.96002084e-002
      -3.24658565e-002 -1.79074667e-002 -6.99229911e-002
      -1.48404226e-001 3.17233577e-002 -8.99381042e-002 -8.28198120e-002
      1.23237342e-001 -2.28050813e-001 -1.69201016e-001 5.83480224e-002
      -2.06787959e-002 -4.59539108e-002 -5.32968193e-002
      -9.22736749e-002 -1.24677811e-002 -4.64415625e-002
      -1.24674574e-001 3.30732651e-002 -1.20954597e-002 -8.64947289e-002
      -1.18945248e-001 -1.26675460e-002 -1.30711466e-001
      -5.55381179e-002 -1.17762648e-001 -1.91701964e-001 2.77606323e-002
      -4.37319204e-002 -2.46847328e-002 2.53909118e-002 -1.54220179e-001
      -1.67354733e-001 -2.79844683e-002 1.69635080e-002 -1.53275773e-001
      -1.64769083e-001 -5.56786656e-002 4.54479866e-002 -3.46424058e-002
      -8.92143920e-002 -5.79330735e-002 -1.80378780e-002
      -5.62412012e-003 -2.95799971e-001 -8.24428275e-002
      -5.88480495e-002 -6.25872388e-002 -1.97496824e-002
      -6.21806383e-002 -1.25306100e-001 -1.13763794e-001
      -1.36806536e-002 -1.28465474e-001 -4.53506596e-002
      -4.62651886e-002 -5.41776270e-002 5.60954623e-002 -2.41157375e-002
      6.08380400e-002 -8.91254321e-002 1.24607291e-002 -5.90447634e-002
      1.30798789e-002 -8.39607269e-002 -1.19422674e-001 -1.37075735e-002
      3.09170242e-002 2.30228938e-002 1.06273247e-002 -1.36263752e-002
      -3.19865406e-001 -6.87025413e-002 -1.17874006e-002
      -1.44070853e-002 3.20088528e-002 -1.50656393e-002 5.22477403e-002
      -7.32977837e-002 -1.07395843e-001 -1.74354464e-001
      -3.61317769e-002 -1.33114427e-001 7.58128166e-002 2.67606322e-002
      -5.04168607e-002 -3.78989652e-002 1.88152939e-002 1.00243159e-001
      -8.35811570e-002 -2.31273863e-002 -1.57644376e-002
      -2.32173409e-002 -3.32456157e-002 -5.98132499e-002
      -1.25289470e-001 -8.89147911e-003 -1.17869146e-001
      -1.86197385e-001 -3.54394801e-002 3.94583233e-002 1.22674763e-001
      -1.37839362e-001 -1.10403664e-001 8.91942624e-003 -4.41385284e-002
      -1.29304945e-001 -1.28781542e-001 -1.54554173e-001
      -2.87655964e-002 -3.19337063e-002 -1.63556829e-001
      -7.76513666e-002 -1.52870983e-001 -5.06996773e-002
      -1.48057282e-001 1.91421670e-004 4.87191752e-002 4.29504663e-002
      -1.77698880e-002 -2.19489321e-001 -1.10312127e-001 3.80186923e-002
      4.31162901e-002 -7.80318752e-002 -1.37245953e-001 -1.39288083e-001
      1.22055583e-001 7.65334964e-002 -1.50504574e-001 -1.17771439e-001
      -1.07504264e-001 8.09535608e-002 6.23814501e-002 5.36360405e-002
      1.95584118e-001 1.10041209e-001 1.62111133e-001 -1.79344162e-001
      -9.49642882e-002 6.57005142e-003 5.75857610e-002 -1.19509757e-001
      -2.00834185e-001 -1.72296632e-002 -7.90727064e-002
      -1.65467948e-001 -1.02299333e-001 -1.61070839e-001 2.43212238e-001
      1.89055890e-001 -1.84412107e-001 4.71654683e-002 -4.96210046e-002
      -3.47505599e-001 -8.11060444e-002 1.40048906e-001 1.06799588e-001
      -3.79218720e-002 -4.00339402e-002 -3.74118648e-002
      -6.16708025e-002 1.42121445e-002 -1.48231015e-001 -5.46392314e-002
      -9.64401439e-002 -1.31684363e-001 2.85397261e-001 1.29677549e-001
      -3.23907798e-003 7.13975495e-003 1.11702606e-002 -2.54126787e-001
      -7.46790841e-002 9.87116471e-002 1.63308844e-001 -1.03097059e-001
      -1.31594524e-001 3.40299197e-002 -1.99874476e-001 5.28484862e-003
      -3.04037752e-003 3.10033723e-003 -1.73994340e-002 -1.42806455e-001
      -3.94892424e-001 -5.07728755e-002 9.78829991e-003 -1.63764372e-001
      -1.31506458e-001 -6.92628399e-002 -2.48715375e-002
      -8.78793225e-002 -3.94336641e-001 7.65323117e-002 -1.26713455e-001
      -1.08496575e-002 -1.75653055e-001 -1.52197070e-002 1.01654015e-001
      -9.84680280e-002 -2.35795185e-001 -1.34083986e-001
      -2.20512658e-001 -2.24537522e-001 -1.57585703e-002
      -3.61583456e-002 -1.78441405e-002 -1.33149857e-002
      -1.43799195e-002 2.92444751e-002 -1.92265704e-001 4.25786078e-002
      2.06084400e-001 1.29956082e-001 3.24351378e-002 -7.46854320e-002
      2.66362857e-002 4.47247289e-002 1.10818766e-001 2.46764775e-002
      -1.19321391e-001 8.23636167e-003 5.63491918e-002 -7.01790079e-002
      -8.31930116e-002 -9.89312381e-002 -1.44990787e-001
      -9.22284126e-002 -8.92812684e-002 9.20914114e-002 1.95099488e-001
      1.58678025e-001 -4.31718007e-002 -1.31486282e-001 1.73033178e-002
      1.18969351e-001 1.78423256e-001 4.88630831e-002 -1.56058267e-001
      -4.86522866e-003 5.08071147e-002 -2.06868481e-002 -1.62846252e-001
      -1.50968999e-001 -7.44174421e-002 9.29475874e-002 -1.64543927e-001
      -2.15803180e-002 5.60844354e-002 8.72914046e-002 -7.30693340e-002
      9.38386098e-002 4.77843210e-002 -4.69236448e-002 4.42216210e-002
      -1.42888606e-001 -5.64311706e-002 3.16927880e-002 7.67728910e-002
      -1.35169908e-001 5.99780083e-002 -5.08358255e-002 -6.39958233e-002
      1.50938807e-002 -6.71464950e-002 -6.67582154e-002 3.35377678e-002
      1.48609236e-001 -3.99358459e-002 4.15811278e-002 3.38766910e-002
      -1.29722252e-001 6.11655712e-002 -7.13177472e-002 -1.62780106e-001
      9.17025134e-002 -2.64219530e-002 -2.87747979e-001 -1.56538144e-001
      -1.83088198e-001 -1.96757421e-001 -3.90213169e-003
      -2.54941429e-003 -6.43114522e-002 6.44092336e-002 -1.19460921e-003
      5.89577965e-002 1.61646903e-001 9.19247419e-002 -7.83167332e-002
      2.57058218e-002 3.33815962e-002 -2.17427872e-002 8.37873016e-003
      -1.70252472e-001 5.02330214e-002 8.58566463e-002 5.69614321e-002
      -3.57715636e-002 4.41470146e-002 2.70223711e-002 -1.08422786e-001
      1.27585247e-001 -6.61678165e-002 -1.06244318e-001 -8.82822722e-002
      -1.04681015e-001 -4.20000255e-002 -2.46479046e-002
      -3.58941332e-002 -3.57332453e-002 2.01571882e-002 -1.81069523e-001
      -8.82420689e-002 -5.60226329e-002 -1.52756050e-001
      -3.95197198e-002 4.43892255e-002 -1.51594162e-001 -6.97081834e-002
      7.20467418e-002 -9.01813731e-002 -1.04980655e-001 1.12701952e-002
      -2.30664685e-002 7.10921437e-002 -9.53882411e-002 -1.57292411e-002
      -5.92291690e-002 1.55524034e-002 -6.33672392e-003 -7.33245164e-002
      -2.42105313e-002 4.41594459e-002 -3.85727733e-002 -1.42221332e-001
      -1.25649437e-001 -1.44654214e-001 3.57586071e-002 -1.23714253e-001
      -3.68121624e-001 -7.82384276e-002 -1.86125919e-001
      -4.39224616e-002 -2.35339813e-002 -3.31975073e-002
      -4.58612107e-002 7.38800541e-002 7.07423091e-002 -1.05204456e-001
      -1.01920791e-001 8.88432562e-002 8.50020628e-003 -4.22758460e-002
      -3.47730443e-002 -5.30342460e-002 -9.74718109e-002
      -1.35037288e-001 -4.20826860e-002 -1.04834326e-001
      -2.09581340e-003 -1.66184343e-002 -1.23138525e-001
      -1.76087081e-001 -1.11269549e-001 -8.42517540e-002 4.68645319e-002
      3.50630134e-002 2.68363714e-001 -9.79994610e-003 8.25879350e-002
      -6.93818480e-002 -1.95430696e-001 -9.64678731e-003 6.00032397e-002
      7.29507506e-002 -1.06055876e-002 -9.13003460e-002 1.43988535e-003
      1.88781675e-002 -2.56533120e-002 -6.61095008e-002 -6.92000091e-002
      2.76279543e-002 6.39879629e-002 -5.14476597e-002 1.48319393e-001
      -8.52525532e-002 1.42837495e-001 -1.59469415e-002 -3.64726335e-002
      -7.96465799e-002 -5.76701425e-002 1.34911407e-002 -7.47298002e-002
      2.25547608e-003 -3.24878283e-002 2.83575021e-002 -3.33239660e-002
      -1.16955310e-001 1.16437331e-001 4.08705324e-002 -1.76580384e-001
      -1.49999946e-001 -1.52459200e-002 -1.87293142e-001 4.63961028e-002
      8.04562718e-002 1.56721160e-001 -1.42317593e-001 5.17435409e-002
      -8.04815590e-002 -8.10388401e-002 2.28030294e-001 9.76691619e-002
      6.55887462e-003 -2.24918369e-002 -7.11777806e-002 1.32324815e-001
      5.91995753e-002 -2.09117353e-001 -8.70396644e-002 4.80522737e-002
      1.16656981e-001 1.95550397e-002 -1.60236031e-001 7.27002248e-002
      6.98697641e-002 -1.07498907e-001 -1.50557104e-002 -8.62640813e-002
      -1.46498650e-001 9.50695723e-002 7.66456425e-002 -1.76608846e-001
      1.81671269e-002 -1.76545486e-001 -1.51994616e-001 -7.88905621e-002
      -1.25361353e-001 -1.78796813e-001 -3.67708430e-002
      -1.46309406e-001 -1.67856976e-001 -1.30508155e-001 1.62766099e-001
      7.35709816e-002 2.48713821e-001 1.18672326e-001 1.85602099e-001
      1.77039132e-001 6.83989823e-002 -2.38056973e-001 8.47643837e-002
      -1.17156520e-001 -9.65224057e-002 -1.14070363e-002 2.04659323e-003
      2.08004847e-001 1.31803647e-001 3.64756066e-004 -1.68303564e-001
      2.39527393e-002 -5.23671992e-002 6.99814467e-004 5.18774949e-002
      2.50735860e-002 -9.34427381e-002 3.71398069e-002 2.69912998e-003
      2.35139839e-002 -3.50169800e-002 -1.08492739e-001 -3.80236842e-002
      2.95604207e-002 2.52945945e-002 -1.04121096e-001 -6.81399833e-003
      -1.38689905e-001 -1.10408030e-001 -1.65271714e-001
      -1.07118580e-002 -8.24955925e-002 6.18332578e-003 -6.19244315e-002
      4.83416691e-002 -5.53696277e-003 -3.26360948e-002 -2.39448939e-002
      6.09705746e-002 -7.92612880e-002 -1.59769952e-001 -5.75516932e-002
      -1.07122064e-001 -1.20964706e-001 -1.49521932e-001
      -5.83902486e-002 -1.03358157e-001 -4.00455594e-002
      -6.17488734e-002 6.14099726e-002 1.21448740e-001 1.74926724e-002
      6.34004623e-002 9.07017663e-002 -5.22125848e-002 4.80598286e-002
      -2.64593083e-002 -2.19313279e-001 -7.73633122e-002
      -2.02490851e-001 -2.84202904e-001 -2.41457731e-001
      -2.01941580e-001 -1.62622929e-001 -1.05976574e-002
      -7.94376954e-002 6.22075200e-002 -9.32862461e-002 -9.81230959e-002
      -1.18780099e-001 5.56824170e-002 2.67160758e-002 1.71111804e-002
      6.56220168e-002 9.17541832e-002 -2.27615610e-002 -1.17242776e-001
      -2.26599962e-001 -1.65107504e-001 -2.83832569e-003
      -2.51957253e-002 1.27597097e-002 1.58943281e-001 1.04103290e-001
      -1.41944379e-001 6.79163039e-002 -1.30990759e-001 -4.80715781e-002
      -1.22029759e-001 -1.55634612e-001 -2.81177368e-002
      -1.07872650e-001 -2.58429050e-001 1.77666526e-002 1.59352534e-002
      -1.21122338e-001 -5.90044819e-002 -1.42440870e-001
      -1.97186247e-001 -1.69844665e-002 5.93747711e-003 -1.92124024e-001
      -8.07271712e-003 7.47017711e-002 -7.21210614e-003 2.91441828e-002
      -1.69425085e-002 3.69654526e-003 5.54600321e-002 1.18884496e-001
      -1.30111158e-001 -9.28258449e-002 1.12025142e-001 1.08616419e-001
      -2.39735283e-002 -1.80250138e-001 -1.83716282e-001
      -9.61681977e-002 9.65873823e-002 -8.94443989e-002 -6.95179552e-002
      1.06831580e-001 -1.44619405e-001 -2.48163030e-001 -1.33962542e-001
      -2.30469540e-001 -8.48151520e-002 -1.63351335e-002
      -7.84194767e-002 -1.25793323e-001 3.97804119e-002 1.04608454e-001
      -4.28297035e-002 -1.26397014e-001 8.07863101e-003 -4.91030663e-002
      -4.64061387e-002 -2.27825157e-002 -2.07761019e-001
      -4.21111472e-002 6.97038323e-002 -3.47098112e-002 -8.83339196e-002
      -2.33604386e-001 -1.65712401e-001 1.61967836e-002 -9.64500010e-002
      -3.55311513e-001 -8.68000388e-002 2.32901618e-001 2.00032830e-001
      8.88771713e-002 7.44306445e-002 -6.83511570e-002 -4.80057672e-002
      -1.82381481e-001 -2.92565469e-002 5.41531888e-004 2.17868507e-001
      1.05944917e-001 -8.46416727e-002 -4.90709990e-002 -4.20181938e-002
      4.62185964e-002 2.48788390e-002 1.09291025e-001 2.36464828e-001
      2.21326485e-001 3.45087312e-002 -2.13824082e-002 -2.98349142e-001
      3.44815962e-002 3.60674523e-002 1.06430016e-001 -3.18673611e-001
      -1.24558859e-001 6.43847957e-002 -4.80060391e-002 -2.88180765e-002
      1.08378967e-002 -4.15027738e-002 -2.80377641e-002 -1.71104103e-001
      -7.76255503e-002 1.71815261e-001 1.09254360e-001 -2.55573317e-002
      6.14654906e-002 -8.26154575e-002 8.77576042e-003 7.35094994e-002
      6.09564632e-002 3.65742370e-002 1.02727458e-001 2.06976179e-002
      -8.99022669e-002 7.70415366e-003 -1.32042974e-001 -1.01480402e-001
      -9.56651866e-002 6.63887113e-002 1.88355878e-001 -5.49230948e-002
      -1.19104929e-001 -2.44078845e-001 8.62827972e-002 3.11787296e-002
      -1.02509759e-001 -2.56553013e-002 1.91867441e-001 4.57153991e-002
      -8.05695876e-002 7.21149221e-002 1.90143636e-003 -5.69740236e-002
      -6.40936056e-003 -1.74987502e-002 1.40654715e-002 1.59187853e-001
      3.58663350e-001 -4.33192700e-002 -2.37711333e-002 -5.04306741e-002
      2.06425458e-001 1.01267345e-001 6.31617010e-002 1.80816427e-001
      3.58484596e-001</_></support_vectors>
  <decision_functions>
    <_>
      <sv_count>1</sv_count>
      <rho>-1.1068845261773742e+001</rho>
      <alpha>
        1.</alpha></_></decision_functions></opencv_ml_svm>
</opencv_storage>
