<?xml version="1.0"?>
<opencv_storage>
<opencv_ml_svm>
  <format>3</format>
  <svmType>C_SVC</svmType>
  <kernel>
    <type>LINEAR</type></kernel>
  <C>1.</C>
  <term_criteria><epsilon>1.1920928955078125e-007</epsilon></term_criteria>
  <var_count>1764</var_count>
  <class_count>2</class_count>
  <class_labels type_id="opencv-matrix">
    <rows>2</rows>
    <cols>1</cols>
    <dt>i</dt>
    <data>
      -1 1</data></class_labels>
  <sv_total>1</sv_total>
  <support_vectors>
    <_>
      -5.68405651e-002 3.29769850e-002 9.79306456e-003 3.77334692e-002
      2.33604461e-002 -7.02026859e-003 1.52404839e-003 2.13513374e-002
      -6.86746389e-002 -5.37841246e-002 -2.30140681e-003 1.36525985e-002
      -7.90703576e-003 2.64490047e-003 1.58588439e-002 -6.47448655e-003
      2.50189267e-002 -5.66748902e-002 3.91934924e-002 2.43217573e-002
      2.48550028e-002 4.29988168e-002 1.01047978e-002 -2.47330535e-002
      -2.47975308e-002 2.69693080e-002 4.22223881e-002 1.99956372e-002
      3.02899280e-003 7.03878235e-003 -3.10184415e-002 -1.96027495e-002
      -1.87036078e-002 -5.33365570e-002 5.83954016e-003 5.03234379e-003
      -5.79737127e-002 -6.07186090e-003 5.18403156e-003 1.28611615e-002
      -6.88002398e-003 1.11571439e-002 1.45414062e-002 5.99172823e-002
      -1.45176630e-002 -9.08694267e-002 -3.76504920e-002
      -2.78512184e-002 1.20065659e-002 -5.01060560e-002 -3.83355021e-002
      2.10562926e-002 6.23918995e-002 -2.18013879e-002 9.86292306e-003
      1.70993467e-003 -2.39853077e-002 -4.48664837e-002 -3.01332604e-002
      -1.12208258e-002 -3.13863121e-002 5.53534888e-002 2.62159333e-002
      -1.89157762e-002 -3.70313972e-002 -3.29903625e-002
      -4.05366309e-002 -5.03297895e-002 -3.56791243e-002
      -1.19575430e-002 7.64507204e-002 3.87979969e-002 -4.18166071e-002
      1.98976323e-003 -9.00412630e-003 3.94396707e-002 -6.09006500e-003
      -3.42737436e-002 2.32529663e-003 4.24699076e-002 -1.51749444e-003
      -2.22598226e-003 4.21170965e-002 1.70362536e-002 6.52501185e-004
      -4.08477597e-002 -6.83841631e-002 -8.52497593e-002
      -2.50864141e-002 -1.44150306e-003 1.24872290e-002 -9.45728738e-003
      -6.23393850e-003 4.81509678e-002 -1.84440538e-002 -2.78888326e-002
      -1.46066863e-003 5.69227822e-002 4.62028310e-002 6.74479874e-003
      -2.04572524e-003 -9.43649746e-003 1.87100694e-002 -4.07356210e-002
      -6.55076653e-002 -8.71876553e-002 -2.03352533e-002 1.73518211e-002
      2.11354606e-002 3.97951296e-003 -1.63087994e-002 -1.63864102e-002
      -3.84506546e-002 -3.52843329e-002 -2.48092413e-002 7.61659816e-003
      1.64805390e-002 -1.14551680e-002 -5.32457605e-002 -6.61438257e-002
      -7.85845798e-003 -2.82914676e-002 2.11281721e-002 1.03884526e-002
      3.35337059e-003 1.67029444e-002 -1.53849926e-002 -3.59151885e-002
      -4.52947728e-002 1.00622112e-002 -1.56527646e-002 -2.04456653e-002
      -4.91591506e-002 -2.08362546e-002 1.48427151e-002 -2.39619482e-002
      -5.02285548e-002 -3.57734077e-002 1.51654128e-002 -1.18006868e-002
      -1.30508840e-002 -2.83265114e-002 -2.78666373e-002
      -2.38306802e-002 -4.49817255e-002 -6.58826455e-002
      -4.59699593e-002 -1.51666384e-002 -1.82872824e-002 5.17512113e-003
      -7.77775189e-003 8.02787766e-003 -2.76813731e-002 -8.51762574e-003
      -5.08193821e-002 -1.40972836e-002 1.65870395e-002 -9.56184231e-003
      1.64941587e-002 6.12323778e-003 2.88580209e-002 4.62673642e-002
      -6.47063404e-002 -3.39581147e-002 -2.84242202e-002
      -5.50351618e-003 -4.48244289e-002 -1.67957284e-002
      -5.08072376e-002 -6.56497851e-002 -8.80352482e-002
      -1.73366331e-002 6.28143968e-003 -3.77211580e-003 1.48106581e-002
      -3.70443240e-002 -2.37371884e-002 -2.23736260e-002
      -2.26711668e-002 -3.97481136e-002 -4.27731089e-002
      -5.28264903e-002 -3.21252458e-002 -3.19755003e-002
      -9.09106508e-002 -3.83252464e-002 2.30279509e-002 1.86458379e-002
      8.36713705e-003 -7.11618364e-002 -2.46937238e-002 -1.82254314e-002
      -3.02625299e-002 -8.74023214e-002 -3.22057232e-002 3.74896638e-002
      -1.14956812e-003 -3.59867737e-002 -3.64128384e-003 2.96102325e-003
      -1.80003997e-002 -5.53848557e-002 -1.23348922e-001
      -5.51791377e-002 -3.41314226e-002 -2.02707667e-002
      -1.95078030e-002 -1.31856995e-002 2.11225916e-002 4.59852349e-003
      -6.47233576e-002 -1.06504589e-001 -1.46037079e-002 2.48782691e-002
      5.44956373e-003 -3.26891206e-002 -4.29010056e-002 1.86197311e-002
      2.64385249e-002 1.24718668e-002 -2.64494028e-002 -3.05663422e-002
      7.58678094e-003 -4.30244170e-002 -6.44976720e-002 3.27175483e-002
      5.14201634e-002 1.97856221e-002 -3.30733135e-002 -6.50031194e-002
      -1.27618760e-001 -1.01900220e-001 -7.55263641e-002
      -3.74527276e-002 -4.69365902e-003 4.79135364e-002 1.08034350e-002
      -3.73429060e-002 -4.74214256e-002 -3.72347832e-002 2.74064075e-002
      -5.67160407e-003 -3.91586795e-002 4.02499400e-002 6.14475869e-002
      3.01444600e-003 -2.65333969e-002 -1.14527352e-001 -8.24760422e-002
      -2.81441417e-002 -1.94173288e-002 2.02376093e-003 3.76024731e-002
      3.26884203e-002 5.48721515e-002 4.32617329e-002 5.48145594e-003
      -9.24268179e-003 -1.91992074e-002 -1.23243313e-004 5.40812388e-002
      5.76732978e-002 2.71169115e-002 -1.64940245e-002 -4.99290898e-002
      -4.39349860e-002 -2.48663034e-002 -4.32138704e-002
      -6.50942186e-003 5.57357185e-002 -8.31208602e-002 4.03030589e-002
      7.25638419e-002 4.47644293e-002 1.65203996e-002 2.41577420e-002
      2.53556464e-002 -2.00914778e-002 -4.56520617e-002 -5.77278920e-002
      1.18691744e-002 -5.11215590e-002 -3.86555605e-002 -3.95023897e-002
      -3.01087275e-002 -3.13911471e-003 -2.68721208e-002
      -6.11449033e-002 8.01898986e-002 4.72753383e-002 -2.01783609e-003
      -2.75476407e-002 -2.61344928e-002 1.19857220e-002 -1.21908998e-002
      5.30062467e-002 6.57917783e-002 2.61002835e-002 2.04046089e-002
      -1.13281338e-002 -1.43072922e-002 -1.51538989e-002 2.05607377e-002
      2.67236941e-002 6.24798834e-002 3.36572938e-002 7.47149438e-003
      3.97024788e-002 -3.61261331e-002 -2.29669362e-002 -1.01510240e-002
      -6.57246541e-003 1.12560382e-002 5.27613843e-003 -1.85118685e-003
      -5.04729189e-002 -7.14004934e-002 -1.11672901e-001
      -1.68395899e-002 -5.60112298e-002 -2.95666941e-002 7.84470327e-003
      1.86504871e-002 -2.73350384e-002 1.49835898e-002 -2.58174483e-002
      6.29750686e-003 6.25672936e-002 1.63788460e-002 1.07357642e-002
      2.88495794e-002 3.66161652e-002 2.79525537e-002 -8.59523471e-003
      -3.48046720e-002 -4.52706739e-002 4.83568385e-002 -1.34743620e-002
      -1.97443403e-002 -1.20856538e-002 7.17737107e-003 1.49453674e-002
      -7.06528798e-002 -5.48880994e-002 -4.68335710e-002 1.47969155e-002
      -3.63383330e-002 -2.49474980e-002 1.10844504e-002 1.32803828e-003
      -4.20649722e-002 -5.27549163e-002 -4.34420370e-002
      -6.79766685e-002 -5.03150141e-003 -3.48277912e-002
      -2.67847199e-002 -2.65230630e-002 -4.26746765e-003
      -2.53789835e-002 -4.52006310e-002 -6.04310594e-002
      -7.57349357e-002 8.86265468e-003 -8.69674329e-003 2.64209528e-002
      9.00320802e-003 8.98595247e-003 2.65062861e-002 -3.25325169e-002
      -4.74997088e-002 -2.78593637e-002 -1.92803647e-002
      -1.32047180e-002 1.76992901e-002 -4.32496779e-002 -3.31913307e-002
      -1.31958760e-002 -2.03572419e-002 -5.52644171e-002
      -7.60161802e-002 -3.43104266e-002 -1.72065478e-002 2.10916288e-002
      -8.70425813e-003 7.12370733e-003 -4.36342740e-003 -2.34337151e-002
      -3.35510783e-002 -2.88578067e-002 -3.31770740e-002
      -2.03722883e-002 1.17388330e-002 -4.88644652e-002 -3.75678912e-002
      -2.47594155e-002 -1.99489370e-002 1.53816575e-002 1.49594480e-002
      -3.58475856e-002 -3.97701338e-002 -2.12476905e-002
      -6.28283247e-002 -5.71571216e-002 -4.45273146e-002 9.85637400e-003
      5.44185415e-002 3.85041237e-002 -2.79322024e-002 -6.16190471e-002
      -4.38298546e-002 -4.23785299e-002 -3.77609693e-002
      -2.21069362e-002 -8.27380270e-003 2.06175819e-002 2.55703367e-002
      -3.39047983e-002 -2.83118188e-002 -3.62540632e-002
      -5.32589220e-002 -6.31476045e-002 -3.02815940e-002 1.84957944e-002
      3.15629877e-002 7.37228757e-003 -4.40391935e-002 -5.87504543e-002
      -6.66099116e-002 -3.86902057e-002 -2.46505141e-002
      -3.52357351e-003 2.32174061e-002 4.27914560e-002 1.21060712e-002
      -5.24727032e-002 -9.80126485e-002 -4.60882820e-002
      -2.20448896e-002 -4.70325444e-003 -1.83424295e-003
      -3.68172931e-003 1.54179242e-002 -1.75127964e-002 -8.35056752e-002
      -7.16743395e-002 3.94885130e-002 7.08978921e-002 3.72656696e-002
      5.87242469e-003 -3.91686298e-002 -2.90429760e-002 -5.10381311e-002
      -7.56003931e-002 -9.39413086e-002 -4.34012152e-002
      -1.07103921e-002 7.56104570e-003 1.27047691e-002 -3.75577360e-002
      -3.58872674e-002 -3.88268828e-002 -5.45989573e-002
      -2.24503335e-002 2.20259391e-002 4.25139256e-002 3.44242528e-002
      -1.34760644e-002 6.74953265e-003 1.73871927e-002 9.15467681e-004
      -3.71837318e-002 -6.77133650e-002 1.32568004e-002 4.03136909e-002
      -1.17304968e-002 -8.67570378e-003 3.55623960e-002 5.84141947e-002
      2.96126977e-002 -2.81859580e-002 -9.39599797e-002 -4.64942604e-002
      1.85024142e-002 3.81433498e-003 -2.28848099e-003 -1.82908904e-002
      -7.91562547e-004 -9.80739575e-003 -3.45056579e-002
      -1.38307512e-002 4.56742011e-002 5.00140004e-002 -3.32833417e-002
      -2.69391406e-002 -1.02875661e-002 1.28955794e-002 -8.29045940e-003
      -3.54678519e-002 -5.58734275e-002 -7.66737852e-003 5.02836853e-002
      -1.15032205e-002 -1.61547717e-002 -8.89478251e-002 3.18595879e-002
      6.00751303e-002 4.24459465e-002 3.48850675e-002 3.83241288e-002
      6.55088201e-002 1.66983623e-002 -5.50069548e-002 -5.33401780e-002
      1.57939661e-002 -4.60480154e-002 -5.34450859e-002 -3.85856740e-002
      -1.36918258e-002 2.63405405e-002 1.96481193e-003 -6.50226101e-002
      -4.04453762e-002 3.81011814e-002 7.31771886e-002 4.29509431e-002
      -1.95735618e-002 4.48321328e-002 9.59107056e-002 4.79513258e-002
      -4.10473235e-002 -2.32602879e-002 3.45163047e-002 -1.26940031e-002
      -4.07300033e-002 -3.60006690e-002 -2.12149732e-002 1.90802645e-002
      1.47205377e-002 -4.11582440e-002 1.11089554e-002 4.36744802e-002
      -2.40239780e-002 -4.21841405e-002 -1.84066314e-003 3.59526575e-002
      4.04674597e-002 2.38572750e-002 2.91527039e-003 -3.46720107e-002
      -7.22900638e-003 -6.19463883e-002 -1.03542861e-003
      -4.59032170e-002 -1.77715663e-002 5.13432641e-003 4.62504895e-003
      -1.51177840e-002 -1.28964959e-002 4.57741432e-002 2.45983247e-002
      -2.99473014e-002 1.21448515e-002 5.74247092e-002 6.54087216e-002
      4.09885868e-002 -1.55770462e-002 -3.52947302e-002 2.45256200e-002
      -3.64617491e-003 1.74567346e-002 -4.12954018e-002 -1.99994892e-002
      -6.78276923e-003 -2.75908317e-002 -4.22525592e-002
      -6.04050867e-002 -3.95202711e-002 -3.49594839e-002 1.61707085e-002
      -4.91164299e-003 -1.47255529e-002 -3.47292819e-003
      -4.30382497e-005 -2.17501186e-002 -1.48532251e-002
      -2.69608479e-002 -2.01748386e-002 5.77826984e-003 -2.40719672e-002
      -3.76783982e-002 -4.25606128e-003 -6.60964474e-003
      -1.06098456e-002 -4.66224253e-002 1.86420940e-002 1.81659423e-002
      3.94887626e-002 -2.18862575e-002 -4.39814813e-002 -4.10539061e-002
      -4.21778671e-002 -6.67653233e-002 -4.82903980e-002 9.47886705e-003
      1.10713402e-002 4.73284582e-003 -1.03564048e-002 -2.43626274e-002
      -2.80211493e-002 -3.91563103e-002 -7.58444220e-002
      -1.20299309e-002 -3.67396772e-002 -3.68663296e-002
      -3.66308987e-002 -2.35777814e-002 4.99950768e-003 -4.60916338e-003
      -7.82112405e-003 -1.36226648e-002 -1.73189752e-002
      -1.63584854e-002 -1.84042696e-002 -3.56572233e-002 1.28987455e-003
      2.68719438e-002 -1.84159391e-002 -3.71431038e-002 -2.09759194e-002
      -4.84177731e-002 -1.78382341e-002 -8.22968222e-003
      -3.29906866e-002 1.55224120e-002 1.23076222e-003 -1.39941927e-002
      -4.48045470e-002 -5.18309027e-002 -2.43192334e-002
      -1.02705676e-002 -2.28058565e-002 -3.92899960e-002 1.01312445e-002
      2.45466940e-002 9.88637656e-003 -3.16162929e-002 -5.09898132e-003
      -1.55529706e-002 5.86394127e-003 -2.04602927e-002 -3.79536189e-002
      -1.80219952e-002 -3.22089531e-002 -5.43652698e-002
      -5.60851395e-002 -1.04063619e-002 1.59887504e-002 1.65389199e-002
      -1.32249827e-002 -3.27575691e-002 -4.67370823e-002
      -4.97679301e-002 -2.17630938e-002 -1.27029151e-003 2.20454261e-002
      -1.48401242e-002 -1.57703215e-003 -2.07107291e-002
      -4.49242927e-002 -2.99475882e-002 -1.31738847e-002
      -2.53803860e-002 -5.41148856e-002 -1.42803714e-002 2.18619518e-002
      1.07602244e-002 -4.13164459e-002 -1.51740657e-002 -9.90542397e-003
      1.25885447e-002 -8.21085647e-003 5.91254514e-003 1.26242191e-002
      -2.64329500e-002 -3.70742679e-002 -5.42098507e-002
      -5.46779782e-002 -7.62358159e-002 -3.93109657e-002
      -2.64403671e-002 4.97135967e-002 3.09676062e-002 -5.48034022e-003
      1.00140348e-002 -1.18617937e-002 -1.89510267e-002 3.80698242e-003
      -1.74153186e-002 -6.86515635e-003 5.34552298e-002 2.57843151e-003
      1.08562419e-002 4.15970758e-003 -3.28138992e-002 6.39120350e-004
      -4.59757354e-003 1.00187827e-002 -2.24721096e-002 2.88175326e-002
      1.88371539e-002 1.24803437e-002 3.58555466e-002 1.70178097e-002
      -9.25451797e-003 1.78504251e-002 1.12937763e-003 6.19103992e-003
      1.00155594e-002 6.26318436e-003 4.16398654e-003 2.81693116e-002
      1.66325029e-002 -4.50078165e-003 -7.59889977e-003 1.68312024e-002
      1.50239915e-002 -1.55741423e-002 -1.55557496e-002 -2.58302013e-003
      3.17571536e-002 -4.86574182e-003 1.35779167e-002 -2.74472106e-002
      1.61110964e-002 5.75398579e-002 -2.76359301e-002 2.71053007e-003
      -1.48943458e-002 -1.47061551e-003 6.05403166e-003 -4.18846635e-003
      9.62396804e-003 -4.44403337e-003 -8.73400923e-003 -2.60260738e-002
      -4.28384133e-002 -6.48106076e-003 -3.45707173e-003
      -2.25504097e-002 -3.13904621e-002 -3.78776602e-002
      -8.19643773e-003 -1.40775358e-002 -5.34624271e-002
      -2.92939581e-002 -4.30247076e-002 3.24714184e-002 6.69517443e-002
      3.91698778e-002 -1.75688993e-002 3.31324860e-002 9.07743871e-002
      3.75780687e-002 -3.70403491e-002 -2.94948705e-002 4.30692807e-002
      1.49414027e-002 -3.25430632e-002 -6.18926249e-002 -2.84791626e-002
      6.32798881e-004 -2.69151758e-003 -5.02120815e-002 -3.29940058e-002
      4.76123951e-002 1.65690091e-002 1.43718477e-002 -2.71738600e-002
      1.41456593e-002 8.07434544e-002 5.22606447e-002 -1.42310215e-002
      -8.56476929e-003 2.72703003e-002 1.49016473e-002 -3.13914903e-002
      -8.34077299e-002 -8.97498801e-002 -3.19199543e-003 1.95246860e-002
      -2.29981206e-002 1.43399718e-003 3.01227197e-002 4.40640002e-002
      1.39763523e-002 -3.41429003e-002 3.51317376e-002 3.14011052e-002
      2.62975018e-003 -2.02200934e-002 -1.81904007e-002 1.77369006e-002
      2.48961020e-002 1.23850293e-002 -3.60131338e-002 -2.31381580e-002
      -3.36935297e-002 -2.94536576e-002 -3.69244367e-002 5.98237792e-004
      5.31493835e-002 7.55183771e-002 2.07963251e-002 -5.83874136e-002
      -1.74197387e-002 7.53837684e-003 2.10021865e-002 -1.52552975e-002
      -3.64718400e-002 3.38930637e-003 2.60529630e-002 1.32618677e-002
      -3.42061780e-002 -1.55323008e-002 -1.92207024e-002
      -3.48568410e-002 -3.99879627e-002 -2.38287561e-002 3.81075107e-002
      3.27299908e-002 3.75448130e-002 -1.30158411e-002 -2.02703271e-002
      -4.47406508e-002 -4.20043543e-002 -3.20100896e-002
      -4.58843857e-002 4.34675552e-002 4.02450264e-002 1.05564361e-002
      -8.85176472e-004 -9.49597079e-003 -3.73236090e-002
      -3.35505866e-002 -5.26321381e-002 -4.33656275e-002 4.92501585e-003
      6.85473764e-003 5.14753796e-002 3.08428868e-003 -2.70188157e-003
      -3.96290906e-002 -2.88609173e-002 -1.49188358e-002
      -2.43175272e-002 5.04863588e-003 4.33487771e-003 4.79764417e-002
      -1.68547104e-003 -1.96328317e-003 -5.50191067e-002
      -3.47728133e-002 -1.00318966e-002 -3.17453071e-002 1.74756590e-002
      3.85075174e-002 2.88142706e-003 1.63798276e-002 4.11699945e-003
      -2.00786684e-002 -3.87205221e-002 -5.53419665e-002
      -3.09429988e-002 7.63982814e-003 1.63061023e-002 -1.85513459e-002
      9.70646366e-003 3.51425074e-002 1.61394116e-003 -1.97750647e-002
      -7.77013274e-003 -2.60665528e-002 -1.05623491e-002 2.99124178e-002
      2.65988521e-002 1.84714943e-002 2.26318948e-002 -3.92780043e-002
      -4.18262444e-002 -2.97332704e-002 -6.31172359e-002
      -3.96169573e-002 4.78059659e-003 2.40069628e-003 -1.13400985e-002
      -1.17090438e-003 -4.14006040e-002 -4.55698036e-002
      -4.22761701e-002 -4.06079777e-002 -3.81263383e-002
      -1.63716376e-002 -3.79527286e-002 -1.40778553e-002 1.45775508e-002
      1.44709903e-003 -2.74596941e-002 -1.87610555e-002 -1.22137005e-002
      1.20454542e-002 1.37154001e-003 -6.34416053e-003 3.58101609e-003
      3.24143954e-002 5.50020533e-003 1.91709045e-002 -3.41516407e-003
      -8.67727399e-002 -5.87429516e-002 -8.37267470e-003
      -2.04229262e-002 -4.80057150e-002 -4.17801961e-002
      -3.45379002e-002 -2.47038547e-002 -3.12803201e-002
      -3.09374090e-002 -2.29925439e-002 -7.42405932e-003
      -1.08863572e-002 -3.90091203e-002 -3.67962122e-002
      -1.84622481e-002 3.18743996e-002 -7.20153656e-003 -8.63765087e-003
      -9.82039329e-003 -4.12907787e-002 4.74116718e-003 -7.70863902e-004
      3.69800925e-002 -8.35498702e-003 1.70770288e-002 1.93690211e-002
      6.32881280e-003 -7.94561766e-003 -8.97707511e-003 1.19865919e-003
      3.29093039e-002 2.86065117e-002 1.26296887e-003 -3.77184369e-005
      -1.09102519e-004 -3.16216052e-002 -3.11553162e-002
      -6.20766282e-002 -4.05074656e-002 -6.19791634e-002
      -3.13847326e-002 -3.59613933e-002 1.33876717e-002 -5.74269053e-003
      5.89607051e-003 -3.07527557e-002 -5.06692827e-002 -4.42330986e-002
      -1.36599364e-003 1.14517445e-002 2.66940170e-003 -1.77666377e-002
      2.46039461e-002 1.01542277e-002 -2.00767424e-002 -4.84994380e-003
      6.13599550e-003 4.47357595e-002 3.08185201e-002 -7.25875096e-003
      -4.52285521e-002 -2.99965292e-002 9.33696423e-003 1.08651211e-002
      -2.85564847e-002 -3.49800214e-002 -1.36113621e-003 9.37790517e-003
      -9.74005274e-003 -5.79465851e-002 -3.19156423e-002 9.24723689e-003
      -2.13576350e-002 -3.25857624e-002 -1.26744201e-002 8.70739296e-003
      2.01089331e-003 -2.13496573e-002 -4.29435931e-002 8.97128135e-003
      -9.13856458e-003 1.94418430e-002 1.99489873e-002 -3.15064117e-002
      -2.85386783e-003 -1.86391324e-002 5.94143104e-003 -3.68555188e-002
      -1.93110500e-002 -5.66295814e-003 1.79761425e-002 -1.63430665e-002
      -2.47787479e-002 -7.49029815e-002 2.11749468e-002 8.49177912e-002
      6.70460388e-002 2.32577138e-002 2.07274761e-002 4.13241647e-002
      5.13581187e-003 -4.17100452e-002 -1.00400239e-001 -9.48673710e-002
      2.44353209e-002 3.81029658e-002 1.81563161e-002 -5.39300404e-003
      2.35908721e-002 2.84817466e-003 -2.39351690e-002 -1.12527959e-001
      -1.18284440e-002 6.38071299e-002 2.70440374e-002 -6.24830369e-003
      -5.50779921e-004 3.14595737e-002 1.30912187e-002 -2.76257750e-002
      -9.28175598e-002 -7.18289912e-002 2.07073055e-002 5.35487384e-003
      -1.43377874e-002 1.88963711e-002 5.79419769e-002 4.94556725e-002
      3.15616503e-002 -5.36086001e-002 -5.35335056e-002 1.72974337e-002
      2.45793909e-002 6.16878364e-003 -3.37177813e-002 2.04916745e-002
      2.14601774e-002 3.62106524e-002 -2.43394822e-002 -3.95056792e-002
      -2.47636922e-002 -3.09700202e-002 -1.69961490e-002 4.13011620e-003
      4.52917181e-002 3.18736248e-002 4.57664579e-002 -4.68364879e-002
      -4.85873148e-002 8.35788157e-003 5.56823751e-003 -8.65909830e-003
      -5.51946387e-002 -7.11710099e-003 -1.28117017e-003 3.52559499e-002
      -2.34340616e-002 -7.65604228e-002 -9.75818932e-003
      -3.40941623e-002 -6.03749007e-002 -4.89643365e-002
      -8.42225552e-003 -8.07131547e-003 5.72002828e-002 6.18112087e-003
      -4.76172753e-002 -2.80844197e-002 -2.65209936e-002
      -1.63721517e-002 -3.29084434e-002 -1.76824257e-002
      -2.18067076e-002 4.02265787e-002 2.22382881e-002 -1.26108481e-002
      -5.90478890e-002 -3.49812359e-002 -2.51813773e-002
      -6.09019212e-002 -2.24499218e-002 -1.36966845e-002 6.03077076e-002
      3.69346589e-002 -2.65209228e-002 -3.85471992e-003 3.52524477e-003
      -4.12953906e-002 -4.22602184e-002 -3.58760357e-002
      -3.16223204e-002 2.23365780e-002 5.43617792e-002 2.84062829e-002
      5.21782320e-004 1.19944466e-002 -2.68306192e-002 -3.70469987e-002
      -1.60370562e-002 -2.80897971e-003 3.41515094e-002 4.21997234e-002
      2.67763119e-002 -6.08327650e-002 -5.13022915e-002 -4.53020558e-002
      -3.78140695e-002 -1.63930352e-003 4.22235690e-002 1.43612744e-002
      2.32888572e-002 -2.46514361e-002 -5.94600663e-002 -5.05998917e-002
      -2.29490343e-002 2.52529606e-002 -1.82159599e-002 -2.72842273e-002
      3.97692015e-003 5.76893501e-002 3.84586416e-002 -1.79716330e-002
      -3.67207862e-002 -4.43201978e-003 3.34388427e-002 1.77399274e-002
      -2.18545110e-003 1.76697467e-002 1.66519731e-002 -2.71553658e-002
      -3.74422632e-002 -6.65451139e-002 -8.51131161e-004
      -3.20551395e-002 -3.42046912e-003 1.65896639e-002 -6.00531558e-003
      -3.86255793e-002 -6.99344054e-002 -3.59139144e-002
      -2.11963840e-002 -3.14184390e-002 -1.09084779e-002 1.15006894e-003
      5.59215620e-003 -1.90845951e-002 -5.33432029e-002 -4.68400829e-002
      -9.94999520e-003 1.56679265e-002 9.40602273e-003 -6.90494291e-003
      -7.43404962e-003 -2.26705484e-002 -1.83718316e-002
      -3.94661501e-002 -4.50607389e-002 -7.99239427e-003
      -3.37593518e-002 -2.56641153e-002 -1.67487599e-002
      -2.57961429e-003 -3.01394053e-002 -2.72585582e-002
      -4.49895933e-002 -9.61975846e-003 3.50442156e-002 2.31228098e-002
      1.10846646e-002 -1.44493282e-002 -1.20433196e-002 -3.94592024e-002
      -4.75914739e-002 -5.48765063e-002 -1.40560362e-002 3.66939791e-003
      3.89116928e-002 5.53482492e-003 -8.47323705e-003 -2.46093906e-002
      -6.78615719e-002 -7.04133883e-002 -1.93480644e-002
      -1.52698800e-003 2.46404856e-003 -5.65049762e-004 4.26123291e-002
      1.53794978e-003 -3.47779877e-003 -5.00788279e-002 -5.27798831e-002
      -4.29012738e-002 1.24954004e-002 9.49241035e-003 1.54356174e-002
      2.24514510e-002 3.08973324e-002 -1.89937111e-002 -7.52214640e-002
      -9.22579393e-002 -6.59807622e-002 2.66146883e-002 2.75308434e-002
      3.64184603e-002 6.37718812e-002 1.47889843e-002 -8.02669022e-003
      -1.50144277e-002 -5.29649965e-002 -6.03915080e-002
      -2.72023510e-002 -3.88867781e-002 -3.22844125e-002 2.81077065e-002
      1.23821218e-002 2.25167312e-002 3.24910469e-002 -2.43288074e-002
      -1.87638365e-002 -1.04235001e-002 -3.84421740e-003
      -2.01178547e-002 -6.48857886e-003 2.46098395e-002 1.74373314e-002
      -3.82776372e-002 -1.03633694e-001 -1.11093238e-001
      -4.40185927e-002 -4.61866632e-002 -2.90260999e-004 1.11289248e-002
      1.68059655e-002 1.10767931e-002 -2.81822798e-003 -4.50896434e-002
      -5.15918769e-002 8.47938377e-003 -1.96769182e-002 -1.30919600e-002
      -3.25474963e-002 -3.17360647e-002 3.57850306e-002 2.71137971e-002
      -1.44710671e-002 -4.53566015e-002 6.32068189e-003 2.60637645e-002
      -8.54122825e-003 -2.93197408e-002 -4.87403199e-002 3.43574733e-002
      7.07751960e-002 2.11762208e-002 -1.65805593e-002 -3.54108512e-002
      -2.86687538e-003 -3.13566886e-002 -5.81668243e-002
      -7.81289935e-002 -1.28064826e-002 -3.64033063e-003 5.78561053e-003
      2.09654216e-002 3.93268205e-002 2.70104930e-002 -4.07821573e-002
      -6.95019662e-002 -6.08441867e-002 2.40180846e-002 6.05735630e-002
      3.70511785e-002 3.32056023e-002 -1.37794763e-002 -7.20561221e-002
      -1.01258241e-001 -7.58147985e-002 -5.93129024e-002 2.66852379e-002
      5.54569326e-002 5.42433523e-002 -1.52147915e-002 -3.13357338e-002
      7.42502336e-004 -1.65945645e-002 -4.69770469e-002 -7.53026828e-002
      -2.65516378e-002 1.48755862e-004 1.95792913e-002 -1.66735109e-002
      -2.05426980e-002 3.54561443e-003 -2.67853644e-002 -6.16775341e-002
      -4.11714353e-002 5.81126437e-002 8.94654766e-002 5.26723377e-002
      2.24571284e-002 -1.34660974e-002 -5.07320203e-002 -6.50507063e-002
      -5.42240366e-002 -6.46716133e-002 4.72744368e-003 1.36080626e-002
      -1.56601667e-002 -3.06999241e-003 2.96436492e-002 3.08603086e-002
      3.63080134e-003 -2.63611209e-002 -6.16892166e-002 -3.09284553e-002
      -1.75207816e-002 2.46134195e-002 3.33882682e-002 1.46285892e-002
      -1.78079233e-002 -1.89825206e-003 -5.99373430e-002
      -2.44694203e-002 -1.26981549e-002 -1.13558983e-002 3.49863456e-003
      3.79515290e-002 1.89991742e-002 -1.08956965e-003 1.01777054e-002
      -5.70008680e-002 -6.60198852e-002 -2.54272614e-002
      -5.99274365e-003 -2.53714863e-002 -1.19919572e-002 5.27567752e-002
      4.24871705e-002 2.03026161e-002 -3.90700214e-002 -3.85152474e-002
      1.60887721e-004 -6.44477131e-003 -5.88417100e-003 -1.79352034e-002
      4.67549413e-002 3.14480141e-002 2.01858226e-002 -4.22082320e-002
      3.03842444e-002 -1.34692555e-002 -1.23270527e-002 -6.85433019e-003
      1.34361722e-002 -1.14633795e-002 1.30410062e-003 -2.74016019e-002
      -1.46356169e-002 3.62755582e-002 -2.39092391e-002 -7.72663532e-003
      -3.82551108e-003 -1.41314475e-003 -3.06939390e-002
      -4.42129523e-002 -6.71087801e-002 -7.05860509e-003 3.21024540e-003
      4.28878665e-002 -2.10816972e-003 -1.83576904e-002 -2.26693768e-002
      -6.04015449e-003 3.92925087e-003 -8.02399777e-003 -3.40510830e-002
      4.25462000e-004 7.21326051e-003 -1.52692606e-003 8.16860888e-003
      -2.07974799e-002 -5.32304347e-002 -2.10985336e-002
      -4.91348132e-002 -3.59203331e-002 -1.93649419e-002
      -4.35826369e-002 -3.24384347e-002 -4.33407351e-002
      -2.34669577e-002 -2.44651753e-002 -2.05645543e-002
      -2.66068354e-002 -1.14870761e-002 7.85405282e-003 -4.23970865e-003
      -4.25752103e-002 -4.57977988e-002 -1.00962417e-002 9.32889339e-003
      2.77103726e-002 5.36517065e-004 3.47539340e-003 1.08000031e-002
      2.94443732e-003 -2.93738488e-002 -2.69544013e-002 -3.45844291e-002
      -3.73865440e-002 -2.67766006e-002 -1.14061637e-002
      -2.03337874e-002 1.72765851e-002 5.31188026e-003 -1.14043765e-002
      -2.44839564e-002 -2.57282369e-002 2.77689155e-002 1.14178248e-002
      1.22697772e-002 -1.38931312e-002 -1.38696632e-003 -1.04345083e-002
      -6.68385103e-002 -8.91648456e-002 -3.89901288e-002 2.73320321e-002
      -1.06909219e-003 -1.70258489e-002 8.67362414e-003 1.31044146e-002
      -3.98646034e-002 -5.71535043e-002 -9.13811177e-002
      -5.72558977e-002 1.35015184e-002 2.24789027e-002 2.46407483e-002
      2.98316758e-002 -3.58516816e-003 -3.38278264e-002 -3.18160206e-002
      -6.14714473e-002 -4.31996845e-002 4.34190407e-002 2.77617723e-002
      4.61653015e-003 -1.55901769e-002 6.16400968e-004 -2.91773472e-002
      -3.17039303e-002 -6.46091849e-002 -2.35520080e-002 3.30987852e-003
      5.74582480e-002 1.49132721e-002 -7.53588555e-003 1.06230862e-002
      -1.36714727e-002 -6.40901625e-002 -1.11769564e-001
      -8.50078240e-002 -7.53920618e-003 9.30980314e-003 1.78907905e-002
      -1.50439544e-002 -3.43859717e-002 -8.37477762e-003
      -8.06769729e-003 -3.83619703e-002 -6.76535144e-002
      -1.66519918e-002 -2.61368044e-002 -3.73723148e-003
      -4.11509760e-002 -8.16186797e-003 -1.74400508e-002
      -6.82752058e-002 -9.22389105e-002 -4.66997996e-002 6.16933871e-003
      6.45479709e-002 2.30734851e-002 -1.61260483e-003 -2.46919319e-002
      -5.85514680e-002 -3.32055353e-002 -7.64263421e-002
      -6.97467476e-002 7.01842410e-003 3.59342694e-002 6.16679341e-002
      1.78448893e-002 -5.25644533e-002 -7.39748729e-003 -2.43891887e-002
      -3.69914249e-002 -2.60499232e-002 2.83752996e-002 2.55226269e-002
      -3.65665182e-002 -4.01374102e-002 -7.39235803e-002
      -2.85482244e-003 1.74667686e-002 -1.26327332e-002 -1.93400066e-002
      -1.26339579e-002 -6.69901147e-002 -7.45982230e-002
      -4.38507609e-002 -8.45607836e-003 1.58336607e-005 -3.71752353e-003
      -1.45368306e-002 -1.09862164e-003 5.33232838e-002 7.35761225e-002
      1.01788193e-002 -1.22930529e-002 -5.96109256e-002 -5.09539917e-002
      -4.39685099e-002 -2.54701376e-002 -2.65292302e-002 1.31082358e-002
      5.61075918e-002 4.85943928e-002 -8.53414275e-003 -4.69836742e-002
      2.40735877e-002 5.03640473e-002 3.39846313e-003 6.60273293e-003
      1.65709723e-002 -5.51996380e-002 -7.29716569e-002 -5.58815822e-002
      -7.63972029e-002 1.12435769e-003 1.62877177e-003 -5.15076071e-002
      2.19920673e-003 1.54346805e-002 9.79771372e-004 -1.53909223e-002
      -6.67226985e-002 -4.12977077e-002 -1.99960135e-002
      -1.24676377e-002 -1.11983074e-002 1.01811895e-002 4.57008779e-002
      3.67027186e-002 1.97761133e-002 -9.15058143e-003 -5.40984645e-002
      4.91799554e-003 -1.14389025e-002 -6.78877607e-002 -2.98719425e-002
      -2.04593018e-002 1.63575634e-003 -1.39390165e-002 -5.69378957e-002
      -5.60832210e-002 -1.84558947e-002 -2.89184768e-002
      -5.54061793e-002 -3.82767357e-002 2.72396598e-002 4.27164771e-002
      2.23484877e-002 -5.33576049e-002 -1.14523517e-002 1.63613427e-002
      -3.08136139e-002 -7.45552704e-002 -9.73166227e-002
      -1.63074920e-003 5.05211726e-002 1.69018246e-002 -1.82382334e-002
      -5.18691055e-002 -1.03399241e-002 -1.65156573e-002
      -7.53059462e-002 -5.34736216e-002 -1.28203556e-002 3.31080565e-003
      -1.03586540e-002 -3.80708389e-002 -1.07600668e-003
      -2.29129568e-003 -9.34079383e-003 -7.72098750e-002
      -7.92832002e-002 -1.21428613e-002 3.27617191e-002 2.58806087e-002
      9.54766385e-003 -8.46882164e-003 3.80350910e-002 -4.04032432e-002
      -5.82874306e-002 -7.63535723e-002 -3.13092545e-002 1.79563183e-002
      -2.61393841e-002 -4.16822173e-002 -1.18365474e-002 1.18621653e-002
      -1.46080619e-002 -1.59177538e-002 -4.24757712e-002
      -6.41757995e-002 -4.60164435e-002 -8.19204003e-002
      -6.80858940e-002 3.83016467e-002 6.48280829e-002 2.13091858e-002
      -4.86138090e-002 -6.83769733e-002 -4.75462750e-002 1.88655499e-002
      1.06868939e-002 1.57738905e-002 2.71087252e-002 5.63546829e-002
      4.80028614e-003 -2.31824946e-002 -6.41707554e-002 -7.42435455e-002
      -4.68908027e-002 -2.82902922e-002 -2.49557663e-002
      -3.87953012e-003 4.87562455e-003 -1.92257408e-002 -4.07089144e-002
      -5.75894639e-002 -8.25491920e-002 -4.57102954e-002
      -4.50313464e-002 -3.39884348e-002 6.37974881e-004 1.85719319e-002
      1.66217127e-004 -1.03846276e-002 -3.81837636e-002 -2.03616861e-002
      -8.70642252e-004 1.28745791e-002 -2.80577764e-002 1.95653345e-002
      2.26379894e-002 -3.12794521e-002 -5.93193136e-002 -7.12599233e-002
      -7.89126605e-002 -5.36578931e-002 -4.93021272e-002
      -3.22197750e-002 -2.59811059e-002 3.19262967e-002 1.06888199e-002
      -3.14523466e-002 -3.39457840e-002 -3.02960947e-002 1.26799950e-002
      1.49313845e-002 -2.68436894e-002 -3.17772962e-002 -5.42206950e-002
      -4.32839803e-002 -4.29314524e-002 -4.30386104e-002
      -2.00488209e-003 1.33216307e-002 1.13554560e-002 -4.58700694e-002
      -3.97535861e-002 -3.34725380e-002 -3.29579040e-002
      -6.37581572e-002 -2.46444419e-002 8.92317016e-003 3.50188762e-002
      9.78526543e-004 -5.06624132e-002 -5.74039631e-002 -1.62207931e-002
      -1.95948780e-002 -6.30475953e-002 -4.58054990e-002
      -2.64440011e-002 2.78269704e-002 1.96960457e-002 -2.43703499e-002
      -5.92876263e-002 -2.52328292e-002 -4.48541343e-002
      -2.89504901e-002 -1.06513053e-002 9.78895836e-003 5.56686968e-002
      3.00831106e-002 -1.79090444e-002 -3.87197733e-002 -3.94215062e-002
      -5.31113520e-002 -5.68447299e-002 -4.22111191e-002 1.83981704e-003
      3.98891345e-002 -1.14519540e-002 -4.05738167e-002 -4.50338870e-002
      -5.58827333e-002 -3.08534056e-002 -6.10738695e-002
      -5.65096773e-002 7.91163649e-003 6.33079652e-003 1.81426797e-002
      -4.30491520e-003 -2.06497386e-002 -3.17500681e-002
      -4.34642248e-002 -2.07291543e-002 -2.18334291e-002 6.13496266e-003
      1.65568739e-002 6.33511646e-003 -3.78382247e-004 2.35744170e-003
      -3.33532430e-002 -1.14096887e-002 -4.06235345e-002
      -1.98880602e-002 2.90115457e-003 -2.18423083e-002 1.55720103e-004
      4.74953763e-002</_></support_vectors>
  <decision_functions>
    <_>
      <sv_count>1</sv_count>
      <rho>-3.4039191395148438e+000</rho>
      <alpha>
        1.</alpha></_></decision_functions></opencv_ml_svm>
</opencv_storage>
